<?xml version="1.0"?>
<opencv_storage>
<cascade>
  <stageType>BOOST</stageType>
  <featureType>LBP</featureType>
  <height>16</height>
  <width>16</width>
  <stageParams>
    <boostType>GAB</boostType>
    <minHitRate>9.9900001287460327e-01</minHitRate>
    <maxFalseAlarm>5.0000000000000000e-01</maxFalseAlarm>
    <weightTrimRate>9.4999999999999996e-01</weightTrimRate>
    <maxDepth>1</maxDepth>
    <maxWeakCount>100</maxWeakCount></stageParams>
  <featureParams>
    <maxCatCount>256</maxCatCount>
    <featSize>1</featSize></featureParams>
  <stageNum>19</stageNum>
  <stages>
    <!-- stage 0 -->
    <_>
      <maxWeakCount>5</maxWeakCount>
      <stageThreshold>-1.7307543754577637e+00</stageThreshold>
      <weakClassifiers>
        <_>
          <internalNodes>
            0 -1 33 -548623480 -1114118 1229243908 -547491850 -131624 -4
            1599983498 -538968577</internalNodes>
          <leafValues>
            -6.3187587261199951e-01 8.2066422700881958e-01</leafValues></_>
        <_>
          <internalNodes>
            0 -1 32 2029494786 -1310801 1731092512 -8671378 -805337169
            -8421377 2130706351 -134217753</internalNodes>
          <leafValues>
            -5.0233817100524902e-01 7.6256585121154785e-01</leafValues></_>
        <_>
          <internalNodes>
            0 -1 100 -272393 -1596661831 -1296569857 -292094466
            2024696157 -1107827014 -852140 -21692556</internalNodes>
          <leafValues>
            -6.6986274719238281e-01 6.3145965337753296e-01</leafValues></_>
        <_>
          <internalNodes>
            0 -1 75 -536875777 -805388301 -268435521 1858011060
            -142713004 2138931188 2147417804 -17768592</internalNodes>
          <leafValues>
            -5.8648413419723511e-01 6.3468092679977417e-01</leafValues></_>
        <_>
          <internalNodes>
            0 -1 162 -134236413 937032546 -930954496 -286853305
            -118654603 1936193170 2130605380 -185075721</internalNodes>
          <leafValues>
            -6.4151579141616821e-01 5.8061456680297852e-01</leafValues></_></weakClassifiers></_>
    <!-- stage 1 -->
    <_>
      <maxWeakCount>5</maxWeakCount>
      <stageThreshold>-1.7965584993362427e+00</stageThreshold>
      <weakClassifiers>
        <_>
          <internalNodes>
            0 -1 2 -353393010 -4161 404360941 -35819529 -8392721
            -6569729 -536870977 -1</internalNodes>
          <leafValues>
            -6.5217393636703491e-01 7.8431373834609985e-01</leafValues></_>
        <_>
          <internalNodes>
            0 -1 4 -11617362 -208498658 -2147483388 -242428020
            -766517244 -244318041 -1681861714 -201326593</internalNodes>
          <leafValues>
            -7.0840376615524292e-01 6.1241763830184937e-01</leafValues></_>
        <_>
          <internalNodes>
            0 -1 176 -457 -270532749 -1342439709 1778366462 -146277632
            -67108996 -143130716 -16974018</internalNodes>
          <leafValues>
            -5.2909588813781738e-01 6.9677257537841797e-01</leafValues></_>
        <_>
          <internalNodes>
            0 -1 166 -286261273 -1129316737 -268435532 -67174420
            -1075839131 -268566539 -17301516 -184557578</internalNodes>
          <leafValues>
            -5.3933846950531006e-01 6.2260359525680542e-01</leafValues></_>
        <_>
          <internalNodes>
            0 -1 41 -673221929 -269683365 -788106774 -262244460
            731798837 2072161475 531413584 -76383420</internalNodes>
          <leafValues>
            -6.8836790323257446e-01 4.7984421253204346e-01</leafValues></_></weakClassifiers></_>
    <!-- stage 2 -->
    <_>
      <maxWeakCount>6</maxWeakCount>
      <stageThreshold>-1.6655782461166382e+00</stageThreshold>
      <weakClassifiers>
        <_>
          <internalNodes>
            0 -1 153 -1281368577 -1362444066 -713568901 -1359556104
            -129961555 -880180039 -72957980 -318966284</internalNodes>
          <leafValues>
            -7.4600505828857422e-01 6.0566449165344238e-01</leafValues></_>
        <_>
          <internalNodes>
            0 -1 157 -545299456 -73927265 -750035025 -1851 -467201260
            -611612357 -1086920897 -2098185</internalNodes>
          <leafValues>
            -6.7683929204940796e-01 5.8937007188796997e-01</leafValues></_>
        <_>
          <internalNodes>
            0 -1 148 -1752157441 -360677202 -787090945 -2297380
            -259268396 -624195448 -80478212 -291702284</internalNodes>
          <leafValues>
            -5.9617167711257935e-01 5.8871400356292725e-01</leafValues></_>
        <_>
          <internalNodes>
            0 -1 152 -110660649 -1681764216 -1138830639 -1282502408
            -21990608 -122805374 -86114320 -18022928</internalNodes>
          <leafValues>
            -6.3294458389282227e-01 5.2780318260192871e-01</leafValues></_>
        <_>
          <internalNodes>
            0 -1 3 -993087866 -1520009210 337167 2006147966 -243561777
            -73297787 -1430426754 -134805127</internalNodes>
          <leafValues>
            -7.5287038087844849e-01 4.8011684417724609e-01</leafValues></_>
        <_>
          <internalNodes>
            0 -1 114 1069512187 -1695280872 -1862254179 -288429906
            -107922764 -1281695509 -22877444 -20383504</internalNodes>
          <leafValues>
            -6.3057589530944824e-01 5.0626546144485474e-01</leafValues></_></weakClassifiers></_>
    <!-- stage 3 -->
    <_>
      <maxWeakCount>8</maxWeakCount>
      <stageThreshold>-1.4667539596557617e+00</stageThreshold>
      <weakClassifiers>
        <_>
          <internalNodes>
            0 -1 131 -262145 -1073872897 -1073742084 -1077937384
            -16517124 -636629764 -16420 -33693700</internalNodes>
          <leafValues>
            -6.0660445690155029e-01 6.5563726425170898e-01</leafValues></_>
        <_>
          <internalNodes>
            0 -1 32 -1324111070 -116006445 2063799719 -324233 -232407809
            -74934085 1003094015 -419073</internalNodes>
          <leafValues>
            -5.6077134609222412e-01 5.7051342725753784e-01</leafValues></_>
        <_>
          <internalNodes>
            0 -1 86 -19922953 -1659363245 1351877017 -420047960
            -1518189864 -1165391743 -121975892 -285947296</internalNodes>
          <leafValues>
            -6.6780287027359009e-01 4.4125410914421082e-01</leafValues></_>
        <_>
          <internalNodes>
            0 -1 28 2088187673 -2098925 -1072043013 -37564362
            -1691665647 -114810829 736307828 -8947372</internalNodes>
          <leafValues>
            -6.2063592672348022e-01 4.2416730523109436e-01</leafValues></_>
        <_>
          <internalNodes>
            0 -1 9 -391123253 -861524246 -21070058 -306864804
            -1929384193 1861644030 1694451423 -419574068</internalNodes>
          <leafValues>
            -4.6805396676063538e-01 5.4779863357543945e-01</leafValues></_>
        <_>
          <internalNodes>
            0 -1 115 24113663 501140504 -2129477121 1067217596
            1489107128 -1333247828 -1467464200 -1663822660</internalNodes>
          <leafValues>
            -5.7269215583801270e-01 4.4920384883880615e-01</leafValues></_>
        <_>
          <internalNodes>
            0 -1 156 -109862653 -2097331 1060798459 -32997 -574196
            -1107820551 -1174667426 -295650</internalNodes>
          <leafValues>
            -4.8138397932052612e-01 5.4391813278198242e-01</leafValues></_>
        <_>
          <internalNodes>
            0 -1 59 8432454 1804888445 1091257149 1767888154 -1584418027
            -660402014 771041454 2124364942</internalNodes>
          <leafValues>
            -6.4214909076690674e-01 3.8628113269805908e-01</leafValues></_></weakClassifiers></_>
    <!-- stage 4 -->
    <_>
      <maxWeakCount>7</maxWeakCount>
      <stageThreshold>-1.8585281372070312e+00</stageThreshold>
      <weakClassifiers>
        <_>
          <internalNodes>
            0 -1 6 -75628546 -196868 -4390916 -570621954 2147483647
            -33620017 -131073 -2146305</internalNodes>
          <leafValues>
            -5.5071479082107544e-01 6.6452443599700928e-01</leafValues></_>
        <_>
          <internalNodes>
            0 -1 78 -2280548 -1422196550 289499404 -1691769949
            -2092828188 -1165784533 -1861719368 -1182938437</internalNodes>
          <leafValues>
            -7.2802746295928955e-01 4.1314166784286499e-01</leafValues></_>
        <_>
          <internalNodes>
            0 -1 103 -306772207 -717275301 1006628734 -4309137
            -1082742899 -1074298881 -1107869953 -4137</internalNodes>
          <leafValues>
            -4.7268515825271606e-01 5.8997553586959839e-01</leafValues></_>
        <_>
          <internalNodes>
            0 -1 53 1992671231 -142803980 -1040012900 -9117278 327298030
            139462100 -494740486 938555886</internalNodes>
          <leafValues>
            -5.4500937461853027e-01 4.6695730090141296e-01</leafValues></_>
        <_>
          <internalNodes>
            0 -1 175 -710437114 -4231441 -1367610497 -1141428367
            -574298624 -1101720059 -1770129156 -342502552</internalNodes>
          <leafValues>
            -4.5789176225662231e-01 5.3071880340576172e-01</leafValues></_>
        <_>
          <internalNodes>
            0 -1 23 -929415311 -824930095 -1878764134 -57347810
            1084363249 59971603 -903267948 -145256074</internalNodes>
          <leafValues>
            -6.2684154510498047e-01 3.5112470388412476e-01</leafValues></_>
        <_>
          <internalNodes>
            0 -1 104 -729389232 1901562002 -686930474 -582821617
            621637766 -2120673108 122955659 1052968959</internalNodes>
          <leafValues>
            -6.3049387931823730e-01 3.7474563717842102e-01</leafValues></_></weakClassifiers></_>
    <!-- stage 5 -->
    <_>
      <maxWeakCount>9</maxWeakCount>
      <stageThreshold>-1.9751535654067993e+00</stageThreshold>
      <weakClassifiers>
        <_>
          <internalNodes>
            0 -1 176 -213 -2097165 -1090519306 -572000257 -674825468
            -67109010 -16777218 -2101553</internalNodes>
          <leafValues>
            -3.9185312390327454e-01 7.0826834440231323e-01</leafValues></_>
        <_>
          <internalNodes>
            0 -1 183 729263059 -1970605289 894137168 -1461952297
            -796218481 -1433696118 -1146644305 -1396778244</internalNodes>
          <leafValues>
            -5.2657628059387207e-01 5.2318745851516724e-01</leafValues></_>
        <_>
          <internalNodes>
            0 -1 15 -286333969 -823219716 1482050688 -554514110
            1640087563 -355499893 -1715967571 1920984991</internalNodes>
          <leafValues>
            -5.6870442628860474e-01 4.2649799585342407e-01</leafValues></_>
        <_>
          <internalNodes>
            0 -1 116 1849939927 1066774748 -1072506372 -2057445892
            -795108948 -1987571582 2089387228 146788606</internalNodes>
          <leafValues>
            -4.9779328703880310e-01 4.4460541009902954e-01</leafValues></_>
        <_>
          <internalNodes>
            0 -1 68 1073737563 -1195330332 -1574304673 -119648028
            1417675072 -350701375 -225015216 -17794336</internalNodes>
          <leafValues>
            -6.6263580322265625e-01 3.1045624613761902e-01</leafValues></_>
        <_>
          <internalNodes>
            0 -1 130 -582753475 269025550 -1073675856 -1122660144
            -2086657060 790482968 686801082 1153433559</internalNodes>
          <leafValues>
            -4.9393615126609802e-01 4.7014483809471130e-01</leafValues></_>
        <_>
          <internalNodes>
            0 -1 0 -2001820567 805995530 419775633 -145272670 1629680258
            -930452328 1370616964 -1379665448</internalNodes>
          <leafValues>
            -4.8461616039276123e-01 4.6133866906166077e-01</leafValues></_>
        <_>
          <internalNodes>
            0 -1 146 563164023 -279674339 287019359 -1593253696
            969519753 -366509937 -610121072 -1828933648</internalNodes>
          <leafValues>
            -7.0779532194137573e-01 2.9149892926216125e-01</leafValues></_>
        <_>
          <internalNodes>
            0 -1 22 -818223026 248418773 -703950604 -4304418 1544235071
            1518403666 -647873655 1895774302</internalNodes>
          <leafValues>
            -6.0883176326751709e-01 3.2997509837150574e-01</leafValues></_></weakClassifiers></_>
    <!-- stage 6 -->
    <_>
      <maxWeakCount>9</maxWeakCount>
      <stageThreshold>-1.7810658216476440e+00</stageThreshold>
      <weakClassifiers>
        <_>
          <internalNodes>
            0 -1 28 -34945 -193 1521541375 -4521987 2147442559 -29671553
            -9371787 -8945801</internalNodes>
          <leafValues>
            -4.9964764714241028e-01 5.8156913518905640e-01</leafValues></_>
        <_>
          <internalNodes>
            0 -1 1 -393417785 -1074815234 -1087553 -572559706 -184680453
            -16777218 -135411733 -34611729</internalNodes>
          <leafValues>
            -4.0391010046005249e-01 6.3417851924896240e-01</leafValues></_>
        <_>
          <internalNodes>
            0 -1 99 -589628485 1850249355 -749418375 -288304657
            -643800488 1921128971 -74421676 -88310992</internalNodes>
          <leafValues>
            -6.8722277879714966e-01 3.5502377152442932e-01</leafValues></_>
        <_>
          <internalNodes>
            0 -1 127 -578301116 -1827510247 453081104 360781057
            -1291718484 -1152810988 -2128545092 -1418462302</internalNodes>
          <leafValues>
            -5.7976990938186646e-01 4.2997777462005615e-01</leafValues></_>
        <_>
          <internalNodes>
            0 -1 158 -681577205 -1144684193 -1473993593 -640581496
            2022199552 -917600448 1897541848 -69999879</internalNodes>
          <leafValues>
            -5.6975215673446655e-01 3.6990767717361450e-01</leafValues></_>
        <_>
          <internalNodes>
            0 -1 172 1998052337 143805056 -515173936 -2066951808
            -443433553 537624779 -108331075 -1930442264</internalNodes>
          <leafValues>
            -5.6345671415328979e-01 3.6336141824722290e-01</leafValues></_>
        <_>
          <internalNodes>
            0 -1 66 -268570705 1563361022 -268640532 -303146 -537432068
            1205141502 -169050433 616922967</internalNodes>
          <leafValues>
            -4.0486428141593933e-01 5.3948581218719482e-01</leafValues></_>
        <_>
          <internalNodes>
            0 -1 54 -625575715 361820687 -788205560 -16997815 1887449732
            931266561 -1433759092 -1150091722</internalNodes>
          <leafValues>
            -5.0113958120346069e-01 4.0821331739425659e-01</leafValues></_>
        <_>
          <internalNodes>
            0 -1 76 389757855 299254309 -2063283582 458398069 -792178688
            -1300082535 822094076 -855179</internalNodes>
          <leafValues>
            -5.4147899150848389e-01 3.7670305371284485e-01</leafValues></_></weakClassifiers></_>
    <!-- stage 7 -->
    <_>
      <maxWeakCount>11</maxWeakCount>
      <stageThreshold>-1.9509191513061523e+00</stageThreshold>
      <weakClassifiers>
        <_>
          <internalNodes>
            0 -1 58 -1968525389 334494968 -2105473 2111821311 803540991
            -1376256002 -1748180993 -20993</internalNodes>
          <leafValues>
            -4.6578073501586914e-01 6.0921055078506470e-01</leafValues></_>
        <_>
          <internalNodes>
            0 -1 177 -2097885 -12583249 787312288 -1214070801 -590076
            -17301513 -726876 -186651138</internalNodes>
          <leafValues>
            -4.7236219048500061e-01 4.8081105947494507e-01</leafValues></_>
        <_>
          <internalNodes>
            0 -1 98 -1073741865 -4194308 -1074938884 -1078985030
            -27435044 1062567932 -1113130118 901742591</internalNodes>
          <leafValues>
            -4.0463659167289734e-01 4.8324501514434814e-01</leafValues></_>
        <_>
          <internalNodes>
            0 -1 182 -1688643597 -1571106538 -652824176 685246917
            -339525143 -1468006007 -74077268 -1996711763</internalNodes>
          <leafValues>
            -5.9338033199310303e-01 3.4834674000740051e-01</leafValues></_>
        <_>
          <internalNodes>
            0 -1 118 1588974080 -82172713 195139215 -576350113
            -1062587732 -73234264 286199342 -1490584530</internalNodes>
          <leafValues>
            -5.4718679189682007e-01 3.5453447699546814e-01</leafValues></_>
        <_>
          <internalNodes>
            0 -1 38 -1042671137 413024852 346570846 -259948 -939390832
            1510130571 -1873622738 1735351578</internalNodes>
          <leafValues>
            -5.3380864858627319e-01 3.4635478258132935e-01</leafValues></_>
        <_>
          <internalNodes>
            0 -1 74 1360025341 1372590538 -1861193700 1599931084
            -784170514 278924160 -620229906 2029828090</internalNodes>
          <leafValues>
            -5.0366586446762085e-01 4.1444203257560730e-01</leafValues></_>
        <_>
          <internalNodes>
            0 -1 36 42175997 -1638383314 -746557436 1440292028 365133978
            -1962360311 -2121455634 1570227006</internalNodes>
          <leafValues>
            -4.6337997913360596e-01 4.2694589495658875e-01</leafValues></_>
        <_>
          <internalNodes>
            0 -1 132 888475867 600866820 -383051301 -1362312816
            -240439024 -86310749 -1154934432 -287509644</internalNodes>
          <leafValues>
            -7.2234952449798584e-01 2.7232733368873596e-01</leafValues></_>
        <_>
          <internalNodes>
            0 -1 26 1109606903 -65976169 1350570230 -44427364 1073744016
            270567425 -639630409 -1235761065</internalNodes>
          <leafValues>
            -4.9619349837303162e-01 3.8520026206970215e-01</leafValues></_>
        <_>
          <internalNodes>
            0 -1 141 -984224843 287417093 1075839312 -1362705988
            304575368 -89947739 -1251845540 284891582</internalNodes>
          <leafValues>
            -4.7914004325866699e-01 4.1209408640861511e-01</leafValues></_></weakClassifiers></_>
    <!-- stage 8 -->
    <_>
      <maxWeakCount>10</maxWeakCount>
      <stageThreshold>-1.3804208040237427e+00</stageThreshold>
      <weakClassifiers>
        <_>
          <internalNodes>
            0 -1 12 -287838229 -454104338 -285213581 -171966481
            -589304117 -436213906 -1310931017 -1052685</internalNodes>
          <leafValues>
            -3.6022728681564331e-01 6.7905139923095703e-01</leafValues></_>
        <_>
          <internalNodes>
            0 -1 170 -9727 -8388621 -1358954753 -1414660169 -360858624
            -2097289 -84083462 -22020609</internalNodes>
          <leafValues>
            -4.0716058015823364e-01 5.8116340637207031e-01</leafValues></_>
        <_>
          <internalNodes>
            0 -1 147 1010686717 -1885580864 -1073720623 -1344910644
            -41409831 982500139 -206826844 -1360334084</internalNodes>
          <leafValues>
            -5.5343151092529297e-01 3.8341361284255981e-01</leafValues></_>
        <_>
          <internalNodes>
            0 -1 72 2069854207 -1277296322 -786722790 -90252942
            -939393014 -50134897 -1681874168 -353178818</internalNodes>
          <leafValues>
            -5.1529932022094727e-01 4.1215038299560547e-01</leafValues></_>
        <_>
          <internalNodes>
            0 -1 35 -826081602 -2178398 -136936360 -2047753302
            1589330920 -23867205 1796419486 1966445514</internalNodes>
          <leafValues>
            -5.5971080064773560e-01 3.5638278722763062e-01</leafValues></_>
        <_>
          <internalNodes>
            0 -1 136 1388634783 903296477 -920479276 -1654679412
            428054681 -2138013584 -914307588 213363135</internalNodes>
          <leafValues>
            -4.3763253092765808e-01 4.3725565075874329e-01</leafValues></_>
        <_>
          <internalNodes>
            0 -1 126 -679445420 1094755347 1099219360 -921744402
            -1425027244 2063827593 -209474786 1701028806</internalNodes>
          <leafValues>
            -6.0271054506301880e-01 3.2684829831123352e-01</leafValues></_>
        <_>
          <internalNodes>
            0 -1 161 -445298957 684490988 -2121776457 -1974566888
            1753287477 2063728824 -225662924 -191581472</internalNodes>
          <leafValues>
            -6.8277418613433838e-01 2.7499181032180786e-01</leafValues></_>
        <_>
          <internalNodes>
            0 -1 110 -1764232457 -1778105896 420696928 -1153890280
            832642704 2100105482 -1426179670 800021198</internalNodes>
          <leafValues>
            -4.6005532145500183e-01 4.3369722366333008e-01</leafValues></_>
        <_>
          <internalNodes>
            0 -1 101 1461438187 504383748 1133084686 -216607586
            2076877224 168460345 -1189944916 653622143</internalNodes>
          <leafValues>
            -4.4908678531646729e-01 4.3847727775573730e-01</leafValues></_></weakClassifiers></_>
    <!-- stage 9 -->
    <_>
      <maxWeakCount>11</maxWeakCount>
      <stageThreshold>-1.0069738626480103e+00</stageThreshold>
      <weakClassifiers>
        <_>
          <internalNodes>
            0 -1 137 -61163 -41975905 -1185 -570425409 -412774
            -570425347 -12591185 -538190531</internalNodes>
          <leafValues>
            -3.6723831295967102e-01 6.3418292999267578e-01</leafValues></_>
        <_>
          <internalNodes>
            0 -1 49 -1048577 1609498623 -196866 -33132 -539107602
            493682686 2126442186 1441914719</internalNodes>
          <leafValues>
            -4.2337098717689514e-01 5.0735002756118774e-01</leafValues></_>
        <_>
          <internalNodes>
            0 -1 163 2147317691 965251540 -2128932711 -901208664
            -92247196 -1843150687 -173352204 -16932172</internalNodes>
          <leafValues>
            -5.5075758695602417e-01 3.5921478271484375e-01</leafValues></_>
        <_>
          <internalNodes>
            0 -1 167 2069334515 673190161 386105661 -1898038500
            -1366776323 -2002026053 -542451047 -1929380865</internalNodes>
          <leafValues>
            -4.4698315858840942e-01 4.3742105364799500e-01</leafValues></_>
        <_>
          <internalNodes>
            0 -1 40 -543934519 -644571368 -804760596 -1291388 -293569864
            1289759404 -1395517336 896892810</internalNodes>
          <leafValues>
            -6.0333746671676636e-01 2.8725939989089966e-01</leafValues></_>
        <_>
          <internalNodes>
            0 -1 46 1462215338 -846868146 1092616364 253427781 -99935473
            -1342072806 722923403 1806664169</internalNodes>
          <leafValues>
            -5.5563014745712280e-01 3.6131960153579712e-01</leafValues></_>
        <_>
          <internalNodes>
            0 -1 20 -821139489 -1131784969 5247026 -1613578020 537397918
            -1698946941 -796310578 -162049498</internalNodes>
          <leafValues>
            -4.3751791119575500e-01 4.2142987251281738e-01</leafValues></_>
        <_>
          <internalNodes>
            0 -1 81 -1231382581 -392785566 806901187 -1082746244
            278023896 -100040477 -2104866990 -16975870</internalNodes>
          <leafValues>
            -4.7665366530418396e-01 3.6422285437583923e-01</leafValues></_>
        <_>
          <internalNodes>
            0 -1 164 -115671227 419701145 1094730520 956703124 -67916884
            2051121196 -125191412 165674930</internalNodes>
          <leafValues>
            -4.8188844323158264e-01 3.7974330782890320e-01</leafValues></_>
        <_>
          <internalNodes>
            0 -1 77 -1840893073 -745061271 -511492021 1461076364
            -1979704864 -670955317 536886868 -80596384</internalNodes>
          <leafValues>
            -6.1501854658126831e-01 3.1428262591362000e-01</leafValues></_>
        <_>
          <internalNodes>
            0 -1 94 869618587 -268373810 268812362 -821501782
            -2023062624 1292271749 -526314834 773814815</internalNodes>
          <leafValues>
            -4.0613406896591187e-01 4.5453754067420959e-01</leafValues></_></weakClassifiers></_>
    <!-- stage 10 -->
    <_>
      <maxWeakCount>11</maxWeakCount>
      <stageThreshold>-1.6318510770797729e+00</stageThreshold>
      <weakClassifiers>
        <_>
          <internalNodes>
            0 -1 27 -33587337 -8912897 -32769 -37769354 -302547078
            -172169 -672039087 -13418735</internalNodes>
          <leafValues>
            -4.7633135318756104e-01 5.1942616701126099e-01</leafValues></_>
        <_>
          <internalNodes>
            0 -1 5 -487659285 -4214936 -4867 -37888769 -134750210
            -536907777 1308460799 -102773025</internalNodes>
          <leafValues>
            -3.2527679204940796e-01 6.3248103857040405e-01</leafValues></_>
        <_>
          <internalNodes>
            0 -1 174 -67384573 -536924193 -1074594505 -34086917
            -589460926 -8519713 -1906966709 -12060853</internalNodes>
          <leafValues>
            -3.4236377477645874e-01 5.3650403022766113e-01</leafValues></_>
        <_>
          <internalNodes>
            0 -1 51 -2071989765 986583120 -805158870 -59838034
            -637400616 571703683 -92116096 -231454316</internalNodes>
          <leafValues>
            -6.1361128091812134e-01 2.9212594032287598e-01</leafValues></_>
        <_>
          <internalNodes>
            0 -1 48 873601416 1913913810 -1825782308 -744624068
            806060758 -1693675402 -838293569 357669818</internalNodes>
          <leafValues>
            -6.7646938562393188e-01 2.2295780479907990e-01</leafValues></_>
        <_>
          <internalNodes>
            0 -1 41 -738723626 -69169082 268484814 -997166906 684327804
            1260421193 -1979536612 -15572170</internalNodes>
          <leafValues>
            -5.0618332624435425e-01 3.3447378873825073e-01</leafValues></_>
        <_>
          <internalNodes>
            0 -1 62 -967060929 -1084342070 286393688 -707002080
            1300439721 1510529281 1602303498 1725385558</internalNodes>
          <leafValues>
            -4.1904574632644653e-01 4.3941545486450195e-01</leafValues></_>
        <_>
          <internalNodes>
            0 -1 109 1225942331 -1020067748 -1861691330 -745340795
            -1732397276 -1321099127 -1492362510 1917577855</internalNodes>
          <leafValues>
            -4.5943406224250793e-01 3.9551332592964172e-01</leafValues></_>
        <_>
          <internalNodes>
            0 -1 0 -938881869 -1128595716 536755965 -34244609 -336790549
            -337182977 -536908033 1323822574</internalNodes>
          <leafValues>
            -4.0647155046463013e-01 4.5451799035072327e-01</leafValues></_>
        <_>
          <internalNodes>
            0 -1 10 -1974933285 -1098720188 269485698 500761493
            -1970837831 -271044605 1745504985 1419596692</internalNodes>
          <leafValues>
            -5.0854742527008057e-01 3.7331894040107727e-01</leafValues></_>
        <_>
          <internalNodes>
            0 -1 169 -773862651 -238829456 1611497644 2009792806
            -695537080 312508736 -804064529 2044969784</internalNodes>
          <leafValues>
            -4.5398181676864624e-01 3.9062011241912842e-01</leafValues></_></weakClassifiers></_>
    <!-- stage 11 -->
    <_>
      <maxWeakCount>12</maxWeakCount>
      <stageThreshold>-1.2777549028396606e+00</stageThreshold>
      <weakClassifiers>
        <_>
          <internalNodes>
            0 -1 30 -391713929 -1146099715 2147472895 -67644421
            1107296247 -1091043329 -8450049 -822247745</internalNodes>
          <leafValues>
            -3.4549733996391296e-01 6.1236804723739624e-01</leafValues></_>
        <_>
          <internalNodes>
            0 -1 173 -201355520 -775315301 -2109545547 -255088835
            -1421750176 -1303731573 8634907 -1153965149</internalNodes>
          <leafValues>
            -5.0741767883300781e-01 4.1198211908340454e-01</leafValues></_>
        <_>
          <internalNodes>
            0 -1 89 1509479279 1473822816 1369543011 -11400935
            1477450228 2075314347 -605387816 -8758730</internalNodes>
          <leafValues>
            -4.3174335360527039e-01 4.1189354658126831e-01</leafValues></_>
        <_>
          <internalNodes>
            0 -1 125 -1083845707 863785456 -2053435014 -1210492558
            454230908 1528529296 -1169139222 800062423</internalNodes>
          <leafValues>
            -3.9690983295440674e-01 4.3374893069267273e-01</leafValues></_>
        <_>
          <internalNodes>
            0 -1 143 -1188543691 -1575349888 -251625250 -1900777252
            -92058330 -41352568 -1161733392 -1090977868</internalNodes>
          <leafValues>
            -6.3032609224319458e-01 2.4670657515525818e-01</leafValues></_>
        <_>
          <internalNodes>
            0 -1 90 -792597540 -17629209 -16777345 1039400949 -17211452
            2147483647 -1477083777 938964855</internalNodes>
          <leafValues>
            -3.5127988457679749e-01 4.7157993912696838e-01</leafValues></_>
        <_>
          <internalNodes>
            0 -1 180 2122317156 -1074659343 -268435472 -1074795592
            -404865035 826081125 -4104 -1462978597</internalNodes>
          <leafValues>
            -4.1543406248092651e-01 4.3178695440292358e-01</leafValues></_>
        <_>
          <internalNodes>
            0 -1 19 -287912961 1788793282 -1870428986 -19599138 44773579
            1080230024 -350719726 -1764246769</internalNodes>
          <leafValues>
            -4.9672278761863708e-01 3.4507593512535095e-01</leafValues></_>
        <_>
          <internalNodes>
            0 -1 63 1338446321 -1663254373 319071282 1569313638
            189564040 -384303098 -485992438 232750398</internalNodes>
          <leafValues>
            -4.3772649765014648e-01 4.2428129911422729e-01</leafValues></_>
        <_>
          <internalNodes>
            0 -1 122 1497501439 -1935636270 -671004167 1708437522
            294267637 -1627316016 -150078872 -353074572</internalNodes>
          <leafValues>
            -4.9737024307250977e-01 3.7587139010429382e-01</leafValues></_>
        <_>
          <internalNodes>
            0 -1 168 220337147 530096192 21027029 -1242937136
            -1325170015 -1466326911 -1182254856 -1930631684</internalNodes>
          <leafValues>
            -6.4947015047073364e-01 2.3556116223335266e-01</leafValues></_>
        <_>
          <internalNodes>
            0 -1 88 1929371647 -274956296 -16781624 2143289072
            2136759551 2111635444 -33652754 368049247</internalNodes>
          <leafValues>
            -3.6620369553565979e-01 5.1105397939682007e-01</leafValues></_></weakClassifiers></_>
    <!-- stage 12 -->
    <_>
      <maxWeakCount>12</maxWeakCount>
      <stageThreshold>-1.4053606986999512e+00</stageThreshold>
      <weakClassifiers>
        <_>
          <internalNodes>
            0 -1 165 2143289343 -1615200268 -268435457 -1108378116
            -196612 -1610612739 -33619972 -4</internalNodes>
          <leafValues>
            -3.7160494923591614e-01 5.8861207962036133e-01</leafValues></_>
        <_>
          <internalNodes>
            0 -1 31 984008934 -184425003 1401124703 1196686551
            -397891077 -47144919 1434495899 -70397466</internalNodes>
          <leafValues>
            -5.0776720046997070e-01 4.1705369949340820e-01</leafValues></_>
        <_>
          <internalNodes>
            0 -1 25 -747023649 -142655334 -1878789155 -4275830
            -1064959768 -206438373 -375362955 -216960220</internalNodes>
          <leafValues>
            -4.6836209297180176e-01 3.6517331004142761e-01</leafValues></_>
        <_>
          <internalNodes>
            0 -1 11 323544822 -1625423714 -1659617064 -842284916
            573411530 1266944043 -1450487250 1605087486</internalNodes>
          <leafValues>
            -4.9332281947135925e-01 3.4534862637519836e-01</leafValues></_>
        <_>
          <internalNodes>
            0 -1 57 1356054621 1609568604 403706006 1989745944
            1350611354 578848784 16978680 1891198130</internalNodes>
          <leafValues>
            -5.4473686218261719e-01 3.0918571352958679e-01</leafValues></_>
        <_>
          <internalNodes>
            0 -1 87 1130301431 459834136 -779075584 -338812516
            -2147454436 151044169 -1308080272 889178815</internalNodes>
          <leafValues>
            -4.7118681669235229e-01 3.5286045074462891e-01</leafValues></_>
        <_>
          <internalNodes>
            0 -1 96 -1075839561 -1091633158 -268501092 -1350696961
            1601990652 534544254 -553844868 2130182006</internalNodes>
          <leafValues>
            -3.8232606649398804e-01 4.6057236194610596e-01</leafValues></_>
        <_>
          <internalNodes>
            0 -1 145 899150227 -1546485604 65873 -296742448 -1609993204
            -1148649341 -609243280 -1090717136</internalNodes>
          <leafValues>
            -7.1404683589935303e-01 2.1974277496337891e-01</leafValues></_>
        <_>
          <internalNodes>
            0 -1 85 -1124646989 1051656188 2146365170 2142240439
            -539206180 -1965228164 -17375413 2011693055</internalNodes>
          <leafValues>
            -3.4599411487579346e-01 5.2635616064071655e-01</leafValues></_>
        <_>
          <internalNodes>
            0 -1 155 421675196 38536092 -1828634112 205001181 671457469
            136970784 -1072545604 216332730</internalNodes>
          <leafValues>
            -6.4735722541809082e-01 2.8426733613014221e-01</leafValues></_>
        <_>
          <internalNodes>
            0 -1 29 1879044057 -151093506 -67453262 1945305079
            -671138855 -1502314627 -8946116 -42764417</internalNodes>
          <leafValues>
            -3.5599568486213684e-01 4.6069371700286865e-01</leafValues></_>
        <_>
          <internalNodes>
            0 -1 107 2105197915 2134425580 -302186532 -1382285314
            2147246012 2130575356 1828651006 2012708787</internalNodes>
          <leafValues>
            -3.8863149285316467e-01 4.4874593615531921e-01</leafValues></_></weakClassifiers></_>
    <!-- stage 13 -->
    <_>
      <maxWeakCount>11</maxWeakCount>
      <stageThreshold>-1.5576546192169189e+00</stageThreshold>
      <weakClassifiers>
        <_>
          <internalNodes>
            0 -1 117 1823412241 -37765411 2145336319 -131107 -671614978
            -34086913 -40501521 -49217</internalNodes>
          <leafValues>
            -3.8089004158973694e-01 5.3907817602157593e-01</leafValues></_>
        <_>
          <internalNodes>
            0 -1 123 -216018761 993034492 -1810615828 -6319788
            1069504468 2124481193 -879072674 687303527</internalNodes>
          <leafValues>
            -4.1242989897727966e-01 4.3659624457359314e-01</leafValues></_>
        <_>
          <internalNodes>
            0 -1 111 -783035465 -1823398283 -1660780260 -243066100
            -763298870 -1786146496 1925573630 1059585118</internalNodes>
          <leafValues>
            -4.1595274209976196e-01 4.0579104423522949e-01</leafValues></_>
        <_>
          <internalNodes>
            0 -1 24 -745802037 -1479325305 1343817366 -623056674
            -1560059743 1124405281 -234315612 -32478604</internalNodes>
          <leafValues>
            -5.5060493946075439e-01 3.2417213916778564e-01</leafValues></_>
        <_>
          <internalNodes>
            0 -1 151 1464881665 328532125 22122824 -1383396192 948617944
            1778974856 -259919364 1942475600</internalNodes>
          <leafValues>
            -4.5285403728485107e-01 3.8150215148925781e-01</leafValues></_>
        <_>
          <internalNodes>
            0 -1 18 -716127025 500077780 -805133118 -1247811162
            -1984948577 -1953595373 210295004 1581973999</internalNodes>
          <leafValues>
            -3.9885613322257996e-01 4.1616970300674438e-01</leafValues></_>
        <_>
          <internalNodes>
            0 -1 92 -596312067 985202550 1877540637 -1507358 1743722484
            1040056319 -25297683 -486613085</internalNodes>
          <leafValues>
            -2.7249696850776672e-01 5.4959940910339355e-01</leafValues></_>
        <_>
          <internalNodes>
            0 -1 182 -612508297 -1086652630 -15 -1195872268 -131217
            973012988 -148225 -2065723921</internalNodes>
          <leafValues>
            -3.1979048252105713e-01 4.8598748445510864e-01</leafValues></_>
        <_>
          <internalNodes>
            0 -1 60 1465324168 147065227 1275674203 155568576 1368029734
            -620167038 1717652203 1891281358</internalNodes>
          <leafValues>
            -6.0070818662643433e-01 2.5631430745124817e-01</leafValues></_>
        <_>
          <internalNodes>
            0 -1 152 284226867 21627152 -1249540395 -290551592 293615729
            1585584779 -526038432 -356718524</internalNodes>
          <leafValues>
            -7.3641157150268555e-01 1.8760256469249725e-01</leafValues></_>
        <_>
          <internalNodes>
            0 -1 82 -670853467 348242880 681594968 -540386962 537725272
            763929488 -1978030934 901228784</internalNodes>
          <leafValues>
            -4.8107856512069702e-01 3.0670681595802307e-01</leafValues></_></weakClassifiers></_>
    <!-- stage 14 -->
    <_>
      <maxWeakCount>14</maxWeakCount>
      <stageThreshold>-1.6789915561676025e+00</stageThreshold>
      <weakClassifiers>
        <_>
          <internalNodes>
            0 -1 138 -1340085868 -556818295 -1248832580 -1290043245
            575586974 -66092893 9064318 917993471</internalNodes>
          <leafValues>
            -5.1905626058578491e-01 4.1445657610893250e-01</leafValues></_>
        <_>
          <internalNodes>
            0 -1 179 -1165240525 290000945 -1692941952 -1432775250
            -1171346896 -1279128952 -72619072 -438834178</internalNodes>
          <leafValues>
            -4.8491019010543823e-01 3.7249860167503357e-01</leafValues></_>
        <_>
          <internalNodes>
            0 -1 181 -1249125511 1386910256 -264167216 -1936142092
            -1156848728 372244536 -370558484 -2066159364</internalNodes>
          <leafValues>
            -5.5955457687377930e-01 3.0688405036926270e-01</leafValues></_>
        <_>
          <internalNodes>
            0 -1 39 -1342210049 -554143745 -17105052 2147483636
            2145275870 -841678988 2130632574 1207951099</internalNodes>
          <leafValues>
            -3.2902181148529053e-01 4.9249982833862305e-01</leafValues></_>
        <_>
          <internalNodes>
            0 -1 121 -120201217 520638658 1350592986 1342750748
            -1582204324 -108920693 -1172269051 -94082288</internalNodes>
          <leafValues>
            -4.3687885999679565e-01 3.6048519611358643e-01</leafValues></_>
        <_>
          <internalNodes>
            0 -1 16 -2107735810 -424507282 -801095486 -27884730
            -1864717694 -922779575 -129105362 1635252780</internalNodes>
          <leafValues>
            -5.3524827957153320e-01 2.7258729934692383e-01</leafValues></_>
        <_>
          <internalNodes>
            0 -1 156 -1185610748 -174493376 50364635 -1718828652
            512166034 -393694847 -1597488628 2033338662</internalNodes>
          <leafValues>
            -6.5815633535385132e-01 2.7161493897438049e-01</leafValues></_>
        <_>
          <internalNodes>
            0 -1 112 867989743 68456480 -1053769703 -37187456
            -1040089516 -618036597 -225904360 -222501856</internalNodes>
          <leafValues>
            -5.3783893585205078e-01 2.8299617767333984e-01</leafValues></_>
        <_>
          <internalNodes>
            0 -1 8 -555422021 -1846612306 -18387275 1575437024
            -1124147202 1879048175 2146858751 2146951159</internalNodes>
          <leafValues>
            -3.7599799036979675e-01 4.1544976830482483e-01</leafValues></_>
        <_>
          <internalNodes>
            0 -1 120 -1282211812 440176811 152613328 252856524
            -792484597 467534024 914778766 636448626</internalNodes>
          <leafValues>
            -5.5958169698715210e-01 2.7230471372604370e-01</leafValues></_>
        <_>
          <internalNodes>
            0 -1 97 286349407 1073750016 16908320 -48627568 1124631244
            44597250 648028448 892807934</internalNodes>
          <leafValues>
            -4.7169604897499084e-01 3.4338518977165222e-01</leafValues></_>
        <_>
          <internalNodes>
            0 -1 134 1968277871 -1337163104 269976408 -1370856392
            -1743661652 307233321 -1157403764 903134458</internalNodes>
          <leafValues>
            -5.6121784448623657e-01 2.7210253477096558e-01</leafValues></_>
        <_>
          <internalNodes>
            0 -1 102 -2001633213 -176008765 -1861396263 -148089526
            -1450014817 -1316404592 -1576434706 -2138814912</internalNodes>
          <leafValues>
            -3.9224100112915039e-01 4.1089138388633728e-01</leafValues></_>
        <_>
          <internalNodes>
            0 -1 129 -268607707 1058734078 -1245966 -1078198288
            1073512412 763166588 -302088858 2009071607</internalNodes>
          <leafValues>
            -3.6131039261817932e-01 4.5054033398628235e-01</leafValues></_></weakClassifiers></_>
    <!-- stage 15 -->
    <_>
      <maxWeakCount>16</maxWeakCount>
      <stageThreshold>-1.2679134607315063e+00</stageThreshold>
      <weakClassifiers>
        <_>
          <internalNodes>
            0 -1 183 -1318102713 -1383055230 -1743682939 -1497362097
            -2091671365 -2007903799 -1968969733 -1397953601</internalNodes>
          <leafValues>
            -4.5963755249977112e-01 4.3235781788825989e-01</leafValues></_>
        <_>
          <internalNodes>
            0 -1 175 -579862753 -8950145 1064905724 -201478283 -36843766
            -61532665 -16934177 -77595666</internalNodes>
          <leafValues>
            -3.4312817454338074e-01 5.1326370239257812e-01</leafValues></_>
        <_>
          <internalNodes>
            0 -1 14 545817038 -152141690 1074807564 1305415886
            -1744623478 -352419574 -706821457 1302069242</internalNodes>
          <leafValues>
            -5.0147134065628052e-01 3.1650662422180176e-01</leafValues></_>
        <_>
          <internalNodes>
            0 -1 105 2068005550 33784083 17384290 1099038723 -1055063166
            -531988190 1225845530 -363206930</internalNodes>
          <leafValues>
            -3.9440992474555969e-01 3.9971089363098145e-01</leafValues></_>
        <_>
          <internalNodes>
            0 -1 93 -673861179 2140263360 344457224 -1350178556
            -796376864 -610533239 -1718914786 766868322</internalNodes>
          <leafValues>
            -4.6238049864768982e-01 3.3834263682365417e-01</leafValues></_>
        <_>
          <internalNodes>
            0 -1 149 -1856991153 851918849 1103679533 -1654864572
            -1929300999 352617728 495120637 -1912626948</internalNodes>
          <leafValues>
            -4.4241201877593994e-01 3.4253737330436707e-01</leafValues></_>
        <_>
          <internalNodes>
            0 -1 106 440050431 -2129477560 -2146648053 131338524
            -930600666 -645922685 1250470204 -356729792</internalNodes>
          <leafValues>
            -5.0715780258178711e-01 3.3356854319572449e-01</leafValues></_>
        <_>
          <internalNodes>
            0 -1 70 1117245899 -2028696633 117571630 -1621503596
            -802929990 989896715 715787096 1991725918</internalNodes>
          <leafValues>
            -4.3449363112449646e-01 3.3820292353630066e-01</leafValues></_>
        <_>
          <internalNodes>
            0 -1 34 1883959030 585811542 17829956 90656854 -892305237
            964821250 1899840200 2121136428</internalNodes>
          <leafValues>
            -5.6896913051605225e-01 2.6364308595657349e-01</leafValues></_>
        <_>
          <internalNodes>
            0 -1 21 483422717 -195801059 419495134 -1889871394
            -1035965865 948568071 269506912 2117335344</internalNodes>
          <leafValues>
            -5.3816753625869751e-01 2.7841535210609436e-01</leafValues></_>
        <_>
          <internalNodes>
            0 -1 124 1224765716 2031061546 -2017389696 -1348829120
            -632038144 1237321871 1913797142 1302432531</internalNodes>
          <leafValues>
            -6.5000092983245850e-01 2.4715194106101990e-01</leafValues></_>
        <_>
          <internalNodes>
            0 -1 80 295633568 -1612672252 25447322 1505329840 -880762568
            956530819 797952542 190337658</internalNodes>
          <leafValues>
            -6.5215158462524414e-01 1.9580538570880890e-01</leafValues></_>
        <_>
          <internalNodes>
            0 -1 43 1054849951 1795162104 -1074073923 -1146028042
            -687906096 2071363444 2138341183 -9207975</internalNodes>
          <leafValues>
            -3.6614516377449036e-01 4.1857907176017761e-01</leafValues></_>
        <_>
          <internalNodes>
            0 -1 61 961683102 797622726 1561860188 1467433330 847779271
            1604050945 680227552 613146702</internalNodes>
          <leafValues>
            -5.2432036399841309e-01 2.8838789463043213e-01</leafValues></_>
        <_>
          <internalNodes>
            0 -1 44 -1406497126 -702086960 285511728 -840138111
            -2092766577 -1306492798 142608904 -1900261552</internalNodes>
          <leafValues>
            -4.9279412627220154e-01 3.2212424278259277e-01</leafValues></_>
        <_>
          <internalNodes>
            0 -1 140 1360266227 470981856 -788526715 -2116145048
            2143939583 982188172 770767662 299846205</internalNodes>
          <leafValues>
            -3.8709324598312378e-01 3.9470687508583069e-01</leafValues></_></weakClassifiers></_>
    <!-- stage 16 -->
    <_>
      <maxWeakCount>12</maxWeakCount>
      <stageThreshold>-1.4068714380264282e+00</stageThreshold>
      <weakClassifiers>
        <_>
          <internalNodes>
            0 -1 42 -16810115 -65665 -1074004225 -819457 -286036675
            -98506 -557195 -15237277</internalNodes>
          <leafValues>
            -3.9210155606269836e-01 4.8599874973297119e-01</leafValues></_>
        <_>
          <internalNodes>
            0 -1 9 -454054693 -286609686 -16916715 -35189258 -17371137
            -285839618 1962755807 -453647106</internalNodes>
          <leafValues>
            -3.9259293675422668e-01 4.1448622941970825e-01</leafValues></_>
        <_>
          <internalNodes>
            0 -1 108 320983955 -1861975688 268533786 -451092422
            -754399296 591134754 -217151302 1032278527</internalNodes>
          <leafValues>
            -4.1172075271606445e-01 3.8802379369735718e-01</leafValues></_>
        <_>
          <internalNodes>
            0 -1 67 278198015 -1126936378 1883562207 1959007004
            1937922058 -1835628402 -671024432 -121312268</internalNodes>
          <leafValues>
            -5.8158087730407715e-01 2.7800601720809937e-01</leafValues></_>
        <_>
          <internalNodes>
            0 -1 119 -671103145 -13140034 -1107313153 1978498919
            -8403072 -1610612737 -168413252 -830931082</internalNodes>
          <leafValues>
            -3.3027854561805725e-01 4.8039346933364868e-01</leafValues></_>
        <_>
          <internalNodes>
            0 -1 159 1507835920 819134592 152638420 -1622552573
            -394065280 -770998272 -359597940 -87753966</internalNodes>
          <leafValues>
            -4.3103641271591187e-01 3.5120126605033875e-01</leafValues></_>
        <_>
          <internalNodes>
            0 -1 55 -1847852839 -1065025525 335593553 -643694455
            973603396 948961282 -2105374568 -9410466</internalNodes>
          <leafValues>
            -5.0016564130783081e-01 3.1309530138969421e-01</leafValues></_>
        <_>
          <internalNodes>
            0 -1 133 1879048063 -1615757827 -16777227 -1343291404
            -578977803 -554303492 -16875522 -1141915777</internalNodes>
          <leafValues>
            -3.1129446625709534e-01 5.5164587497711182e-01</leafValues></_>
        <_>
          <internalNodes>
            0 -1 178 -1819942136 -1018002944 268599296 -1136492140
            -183614591 134250497 -150226264 271874760</internalNodes>
          <leafValues>
            -7.6732569932937622e-01 2.3748312890529633e-01</leafValues></_>
        <_>
          <internalNodes>
            0 -1 154 991477709 671236440 302010649 -1453563572 545878660
            166331017 1671492000 -1398060660</internalNodes>
          <leafValues>
            -5.5441498756408691e-01 2.6146134734153748e-01</leafValues></_>
        <_>
          <internalNodes>
            0 -1 79 1359287224 964872274 805324936 -1053621245
            1493576200 949059752 1946253962 619149895</internalNodes>
          <leafValues>
            -5.9435963630676270e-01 2.5588196516036987e-01</leafValues></_>
        <_>
          <internalNodes>
            0 -1 65 -348038509 -2070918621 -1023360842 1058914452
            277094682 1526890627 -1164264546 1723039551</internalNodes>
          <leafValues>
            -3.8411182165145874e-01 4.1328036785125732e-01</leafValues></_></weakClassifiers></_>
    <!-- stage 17 -->
    <_>
      <maxWeakCount>14</maxWeakCount>
      <stageThreshold>-1.8002212047576904e+00</stageThreshold>
      <weakClassifiers>
        <_>
          <internalNodes>
            0 -1 176 -2533 -2130061 -285507998 1140307839 -145884412
            -67108866 -598098 -202379409</internalNodes>
          <leafValues>
            -3.6877980828285217e-01 4.9165597558021545e-01</leafValues></_>
        <_>
          <internalNodes>
            0 -1 84 1957876479 -1081290361 -1073688423 -1249636172
            -1033211844 -259358589 -376542600 -464300</internalNodes>
          <leafValues>
            -5.5043762922286987e-01 3.2604190707206726e-01</leafValues></_>
        <_>
          <internalNodes>
            0 -1 13 -1265459233 -545901986 306452644 -839398200
            1107296267 2126121090 -1990229541 1289740255</internalNodes>
          <leafValues>
            -3.8887539505958557e-01 4.1426774859428406e-01</leafValues></_>
        <_>
          <internalNodes>
            0 -1 142 -33718553 -1089146884 -50397186 -538066948
            -41943060 -1636499460 -461570434 1474781183</internalNodes>
          <leafValues>
            -3.0281099677085876e-01 4.8659798502922058e-01</leafValues></_>
        <_>
          <internalNodes>
            0 -1 17 1809597375 1438401081 131328 -35733282 -1870356276
            -1056694079 -171703678 1970293300</internalNodes>
          <leafValues>
            -7.3693561553955078e-01 1.4409036934375763e-01</leafValues></_>
        <_>
          <internalNodes>
            0 -1 83 280736241 -1476230968 2494762 -1315467002 187404690
            -70024808 -1955050625 815791242</internalNodes>
          <leafValues>
            -3.9670696854591370e-01 3.6097347736358643e-01</leafValues></_>
        <_>
          <internalNodes>
            0 -1 135 1899219459 595611696 294768784 -1342930496
            544415904 420053149 -1283221196 551508148</internalNodes>
          <leafValues>
            -6.5202903747558594e-01 2.5049299001693726e-01</leafValues></_>
        <_>
          <internalNodes>
            0 -1 69 -745310881 410787909 655760 -840286144 545279652
            2017510019 -1737666402 1048051301</internalNodes>
          <leafValues>
            -4.3063458800315857e-01 3.4375420212745667e-01</leafValues></_>
        <_>
          <internalNodes>
            0 -1 73 -917794145 1097334918 1090650404 -476411536
            -2011670372 691028263 1787202050 2143812642</internalNodes>
          <leafValues>
            -4.4418972730636597e-01 3.2917365431785583e-01</leafValues></_>
        <_>
          <internalNodes>
            0 -1 47 1608497333 -16892129 -1645989939 2141802286
            804204485 1065189341 -168526674 992659338</internalNodes>
          <leafValues>
            -3.2344511151313782e-01 4.5418792963027954e-01</leafValues></_>
        <_>
          <internalNodes>
            0 -1 64 1242884026 101490894 -385609644 -849592858 169881754
            1529352586 -343799242 1962767206</internalNodes>
          <leafValues>
            -5.7542198896408081e-01 2.5652542710304260e-01</leafValues></_>
        <_>
          <internalNodes>
            0 -1 52 1917007551 -2004870581 -1073364769 -1625505702
            -2038280096 588120222 1772120500 -1276884688</internalNodes>
          <leafValues>
            -5.5854606628417969e-01 2.2018516063690186e-01</leafValues></_>
        <_>
          <internalNodes>
            0 -1 0 -872414173 751427682 403386389 1224827218 294314914
            -633073536 830687833 216220824</internalNodes>
          <leafValues>
            -6.0976415872573853e-01 2.1796981990337372e-01</leafValues></_>
        <_>
          <internalNodes>
            0 -1 56 832243077 -864005935 -1593733037 -107794040
            -1342152503 16842754 -1422780416 -76521866</internalNodes>
          <leafValues>
            -5.0571554899215698e-01 2.5656270980834961e-01</leafValues></_></weakClassifiers></_>
    <!-- stage 18 -->
    <_>
      <maxWeakCount>15</maxWeakCount>
      <stageThreshold>-1.2725284099578857e+00</stageThreshold>
      <weakClassifiers>
        <_>
          <internalNodes>
            0 -1 29 -16842753 -17924353 -67452993 -786437 -671089671
            -1359708169 -786849 -9207945</internalNodes>
          <leafValues>
            -2.5569084286689758e-01 6.2323945760726929e-01</leafValues></_>
        <_>
          <internalNodes>
            0 -1 7 -491806549 -95556950 2147173876 -571474255 -554188865
            -1064961 -717363457 -304099361</internalNodes>
          <leafValues>
            -2.8056311607360840e-01 5.3106641769409180e-01</leafValues></_>
        <_>
          <internalNodes>
            0 -1 171 -671089223 1063714612 -294656352 451935951
            -1711415896 -50495489 -285410100 -253763842</internalNodes>
          <leafValues>
            -2.7508348226547241e-01 5.2655965089797974e-01</leafValues></_>
        <_>
          <internalNodes>
            0 -1 128 1365070200 -2095775603 16796092 -79527090
            1387771612 735781276 -239374390 2141191163</internalNodes>
          <leafValues>
            -3.7475106120109558e-01 3.5017144680023193e-01</leafValues></_>
        <_>
          <internalNodes>
            0 -1 113 1475678487 430477642 838979805 -1866560703
            -137687008 -1198661621 -98424012 -50530028</internalNodes>
          <leafValues>
            -6.2251234054565430e-01 2.2642783820629120e-01</leafValues></_>
        <_>
          <internalNodes>
            0 -1 71 2142732271 -277544964 -16847196 -4329668 1610416124
            503119740 -360452 1169151711</internalNodes>
          <leafValues>
            -3.6890697479248047e-01 4.0599980950355530e-01</leafValues></_>
        <_>
          <internalNodes>
            0 -1 91 2126350059 1003547076 -2147012344 -440429680
            1544244876 799539417 721556346 618097255</internalNodes>
          <leafValues>
            -4.1830301284790039e-01 3.2708227634429932e-01</leafValues></_>
        <_>
          <internalNodes>
            0 -1 144 1938907797 -1485301743 1393627539 265949184
            1484864400 1873313833 -654300684 -285415248</internalNodes>
          <leafValues>
            -5.6533938646316528e-01 2.6092779636383057e-01</leafValues></_>
        <_>
          <internalNodes>
            0 -1 50 282730676 -1049427532 553684377 -580975295
            -2113693030 -1921412104 973769295 1199557470</internalNodes>
          <leafValues>
            -4.0833738446235657e-01 3.7677821516990662e-01</leafValues></_>
        <_>
          <internalNodes>
            0 -1 37 1049608191 536805372 -16982130 805306336 2013068790
            1610022911 -17015330 1685552991</internalNodes>
          <leafValues>
            -3.2748249173164368e-01 4.2428258061408997e-01</leafValues></_>
        <_>
          <internalNodes>
            0 -1 95 1899398790 1905820064 -1560147604 -1826742252
            -1009706496 1478044298 -1474284978 2012771195</internalNodes>
          <leafValues>
            -5.9675914049148560e-01 2.7327272295951843e-01</leafValues></_>
        <_>
          <internalNodes>
            0 -1 139 1979757525 859988949 310468827 832471451 -486012154
            -2097135570 -203319256 -16995580</internalNodes>
          <leafValues>
            -4.1966480016708374e-01 3.6343753337860107e-01</leafValues></_>
        <_>
          <internalNodes>
            0 -1 150 298176915 -1660841581 1085472 -825327349
            -1196944955 2072527502 -1306936327 -185663244</internalNodes>
          <leafValues>
            -3.4225234389305115e-01 4.2828753590583801e-01</leafValues></_>
        <_>
          <internalNodes>
            0 -1 160 -712150763 675676293 1293409168 -1118928435
            -2113222140 2063695872 -501023810 1258005166</internalNodes>
          <leafValues>
            -3.8811230659484863e-01 3.8394144177436829e-01</leafValues></_>
        <_>
          <internalNodes>
            0 -1 45 -1006390715 -53960704 -749174388 1569808400
            2030161203 -1115553630 687945955 -309640797</internalNodes>
          <leafValues>
            -3.6702299118041992e-01 3.9691662788391113e-01</leafValues></_></weakClassifiers></_></stages>
  <features>
    <_>
      <rect>
        0 0 2 2</rect></_>
    <_>
      <rect>
        0 0 3 2</rect></_>
    <_>
      <rect>
        0 0 5 2</rect></_>
    <_>
      <rect>
        0 0 5 3</rect></_>
    <_>
      <rect>
        0 0 5 5</rect></_>
    <_>
      <rect>
        0 1 1 3</rect></_>
    <_>
      <rect>
        0 1 3 5</rect></_>
    <_>
      <rect>
        0 2 1 2</rect></_>
    <_>
      <rect>
        0 2 3 2</rect></_>
    <_>
      <rect>
        0 3 1 2</rect></_>
    <_>
      <rect>
        0 3 2 2</rect></_>
    <_>
      <rect>
        0 3 3 3</rect></_>
    <_>
      <rect>
        0 4 1 1</rect></_>
    <_>
      <rect>
        0 4 3 3</rect></_>
    <_>
      <rect>
        0 4 4 3</rect></_>
    <_>
      <rect>
        0 5 2 2</rect></_>
    <_>
      <rect>
        0 6 1 2</rect></_>
    <_>
      <rect>
        0 6 1 3</rect></_>
    <_>
      <rect>
        0 6 3 2</rect></_>
    <_>
      <rect>
        0 7 1 1</rect></_>
    <_>
      <rect>
        0 8 2 2</rect></_>
    <_>
      <rect>
        0 9 2 2</rect></_>
    <_>
      <rect>
        0 9 3 1</rect></_>
    <_>
      <rect>
        0 10 2 1</rect></_>
    <_>
      <rect>
        0 11 1 1</rect></_>
    <_>
      <rect>
        0 12 1 1</rect></_>
    <_>
      <rect>
        0 12 2 1</rect></_>
    <_>
      <rect>
        0 13 1 1</rect></_>
    <_>
      <rect>
        0 13 2 1</rect></_>
    <_>
      <rect>
        0 13 3 1</rect></_>
    <_>
      <rect>
        1 0 3 1</rect></_>
    <_>
      <rect>
        1 0 4 2</rect></_>
    <_>
      <rect>
        1 0 5 2</rect></_>
    <_>
      <rect>
        1 0 5 4</rect></_>
    <_>
      <rect>
        1 1 2 3</rect></_>
    <_>
      <rect>
        1 3 3 2</rect></_>
    <_>
      <rect>
        1 3 3 3</rect></_>
    <_>
      <rect>
        1 5 2 2</rect></_>
    <_>
      <rect>
        1 8 2 2</rect></_>
    <_>
      <rect>
        1 8 3 2</rect></_>
    <_>
      <rect>
        1 10 3 2</rect></_>
    <_>
      <rect>
        1 12 1 1</rect></_>
    <_>
      <rect>
        1 13 1 1</rect></_>
    <_>
      <rect>
        1 13 2 1</rect></_>
    <_>
      <rect>
        2 1 1 1</rect></_>
    <_>
      <rect>
        2 1 2 1</rect></_>
    <_>
      <rect>
        2 1 4 3</rect></_>
    <_>
      <rect>
        2 3 4 2</rect></_>
    <_>
      <rect>
        2 4 4 3</rect></_>
    <_>
      <rect>
        2 6 3 2</rect></_>
    <_>
      <rect>
        2 6 4 2</rect></_>
    <_>
      <rect>
        2 7 1 1</rect></_>
    <_>
      <rect>
        2 9 1 1</rect></_>
    <_>
      <rect>
        2 10 3 2</rect></_>
    <_>
      <rect>
        2 11 1 1</rect></_>
    <_>
      <rect>
        2 12 1 1</rect></_>
    <_>
      <rect>
        2 13 1 1</rect></_>
    <_>
      <rect>
        2 13 4 1</rect></_>
    <_>
      <rect>
        3 0 2 1</rect></_>
    <_>
      <rect>
        3 0 3 3</rect></_>
    <_>
      <rect>
        3 1 4 2</rect></_>
    <_>
      <rect>
        3 2 2 2</rect></_>
    <_>
      <rect>
        3 3 2 2</rect></_>
    <_>
      <rect>
        3 3 2 3</rect></_>
    <_>
      <rect>
        3 4 2 2</rect></_>
    <_>
      <rect>
        3 5 2 2</rect></_>
    <_>
      <rect>
        3 5 3 2</rect></_>
    <_>
      <rect>
        3 6 1 1</rect></_>
    <_>
      <rect>
        3 7 1 1</rect></_>
    <_>
      <rect>
        3 7 2 2</rect></_>
    <_>
      <rect>
        3 8 2 2</rect></_>
    <_>
      <rect>
        3 8 3 2</rect></_>
    <_>
      <rect>
        3 9 1 1</rect></_>
    <_>
      <rect>
        3 10 2 2</rect></_>
    <_>
      <rect>
        3 10 4 2</rect></_>
    <_>
      <rect>
        3 11 1 1</rect></_>
    <_>
      <rect>
        3 12 1 1</rect></_>
    <_>
      <rect>
        3 13 1 1</rect></_>
    <_>
      <rect>
        4 0 4 5</rect></_>
    <_>
      <rect>
        4 2 3 2</rect></_>
    <_>
      <rect>
        4 2 3 3</rect></_>
    <_>
      <rect>
        4 5 1 1</rect></_>
    <_>
      <rect>
        4 5 2 1</rect></_>
    <_>
      <rect>
        4 6 3 2</rect></_>
    <_>
      <rect>
        4 7 1 1</rect></_>
    <_>
      <rect>
        4 7 3 2</rect></_>
    <_>
      <rect>
        4 8 1 1</rect></_>
    <_>
      <rect>
        4 9 2 2</rect></_>
    <_>
      <rect>
        4 9 3 2</rect></_>
    <_>
      <rect>
        4 12 1 1</rect></_>
    <_>
      <rect>
        5 1 2 2</rect></_>
    <_>
      <rect>
        5 2 2 2</rect></_>
    <_>
      <rect>
        5 3 2 1</rect></_>
    <_>
      <rect>
        5 3 2 2</rect></_>
    <_>
      <rect>
        5 3 2 3</rect></_>
    <_>
      <rect>
        5 4 3 2</rect></_>
    <_>
      <rect>
        5 5 2 2</rect></_>
    <_>
      <rect>
        5 6 2 3</rect></_>
    <_>
      <rect>
        5 6 3 2</rect></_>
    <_>
      <rect>
        5 7 1 1</rect></_>
    <_>
      <rect>
        5 8 1 1</rect></_>
    <_>
      <rect>
        5 8 2 2</rect></_>
    <_>
      <rect>
        6 0 1 1</rect></_>
    <_>
      <rect>
        6 0 3 1</rect></_>
    <_>
      <rect>
        6 0 3 3</rect></_>
    <_>
      <rect>
        6 1 3 5</rect></_>
    <_>
      <rect>
        6 4 1 1</rect></_>
    <_>
      <rect>
        6 4 2 2</rect></_>
    <_>
      <rect>
        6 4 2 3</rect></_>
    <_>
      <rect>
        6 4 3 3</rect></_>
    <_>
      <rect>
        6 5 2 2</rect></_>
    <_>
      <rect>
        6 5 3 3</rect></_>
    <_>
      <rect>
        6 6 1 1</rect></_>
    <_>
      <rect>
        6 8 1 1</rect></_>
    <_>
      <rect>
        6 10 1 1</rect></_>
    <_>
      <rect>
        6 13 2 1</rect></_>
    <_>
      <rect>
        6 13 3 1</rect></_>
    <_>
      <rect>
        7 0 2 1</rect></_>
    <_>
      <rect>
        7 0 3 2</rect></_>
    <_>
      <rect>
        7 1 3 1</rect></_>
    <_>
      <rect>
        7 2 2 2</rect></_>
    <_>
      <rect>
        7 3 1 1</rect></_>
    <_>
      <rect>
        7 4 1 1</rect></_>
    <_>
      <rect>
        7 4 2 2</rect></_>
    <_>
      <rect>
        7 4 3 2</rect></_>
    <_>
      <rect>
        7 5 2 2</rect></_>
    <_>
      <rect>
        7 5 3 2</rect></_>
    <_>
      <rect>
        7 5 3 3</rect></_>
    <_>
      <rect>
        7 6 3 2</rect></_>
    <_>
      <rect>
        7 7 2 2</rect></_>
    <_>
      <rect>
        7 7 3 2</rect></_>
    <_>
      <rect>
        7 7 3 3</rect></_>
    <_>
      <rect>
        7 8 1 1</rect></_>
    <_>
      <rect>
        7 8 2 2</rect></_>
    <_>
      <rect>
        7 10 2 2</rect></_>
    <_>
      <rect>
        7 11 2 1</rect></_>
    <_>
      <rect>
        7 13 3 1</rect></_>
    <_>
      <rect>
        8 0 2 1</rect></_>
    <_>
      <rect>
        8 1 2 3</rect></_>
    <_>
      <rect>
        8 3 1 1</rect></_>
    <_>
      <rect>
        8 3 2 2</rect></_>
    <_>
      <rect>
        8 4 2 2</rect></_>
    <_>
      <rect>
        8 5 2 3</rect></_>
    <_>
      <rect>
        8 6 1 1</rect></_>
    <_>
      <rect>
        8 7 1 1</rect></_>
    <_>
      <rect>
        8 8 1 1</rect></_>
    <_>
      <rect>
        8 9 1 1</rect></_>
    <_>
      <rect>
        8 11 1 1</rect></_>
    <_>
      <rect>
        8 12 1 1</rect></_>
    <_>
      <rect>
        8 13 2 1</rect></_>
    <_>
      <rect>
        9 4 2 1</rect></_>
    <_>
      <rect>
        9 5 2 1</rect></_>
    <_>
      <rect>
        9 8 1 1</rect></_>
    <_>
      <rect>
        9 10 1 1</rect></_>
    <_>
      <rect>
        9 12 1 1</rect></_>
    <_>
      <rect>
        9 13 2 1</rect></_>
    <_>
      <rect>
        10 0 2 2</rect></_>
    <_>
      <rect>
        10 0 2 3</rect></_>
    <_>
      <rect>
        10 2 2 1</rect></_>
    <_>
      <rect>
        10 3 1 1</rect></_>
    <_>
      <rect>
        10 5 2 2</rect></_>
    <_>
      <rect>
        10 6 1 1</rect></_>
    <_>
      <rect>
        10 6 2 1</rect></_>
    <_>
      <rect>
        10 7 1 1</rect></_>
    <_>
      <rect>
        10 7 2 2</rect></_>
    <_>
      <rect>
        10 9 1 1</rect></_>
    <_>
      <rect>
        10 9 2 1</rect></_>
    <_>
      <rect>
        10 13 2 1</rect></_>
    <_>
      <rect>
        11 12 1 1</rect></_>
    <_>
      <rect>
        12 2 1 1</rect></_>
    <_>
      <rect>
        12 3 1 1</rect></_>
    <_>
      <rect>
        12 5 1 1</rect></_>
    <_>
      <rect>
        12 12 1 1</rect></_>
    <_>
      <rect>
        13 0 1 4</rect></_>
    <_>
      <rect>
        13 2 1 2</rect></_>
    <_>
      <rect>
        13 3 1 1</rect></_>
    <_>
      <rect>
        13 4 1 1</rect></_>
    <_>
      <rect>
        13 6 1 1</rect></_>
    <_>
      <rect>
        13 6 1 3</rect></_>
    <_>
      <rect>
        13 7 1 1</rect></_>
    <_>
      <rect>
        13 7 1 2</rect></_>
    <_>
      <rect>
        13 11 1 1</rect></_>
    <_>
      <rect>
        13 12 1 1</rect></_>
    <_>
      <rect>
        13 13 1 1</rect></_></features></cascade>
</opencv_storage>
