<?xml version="1.0"?>
<opencv_storage>
<stage16>
  <maxWeakCount>12</maxWeakCount>
  <stageThreshold>-1.4068714380264282e+00</stageThreshold>
  <weakClassifiers>
    <_>
      <internalNodes>
        0 -1 395 -16810115 -65665 -1074004225 -819457 -286036675 -98506
        -557195 -15237277</internalNodes>
      <leafValues>
        -3.9210155606269836e-01 4.8599874973297119e-01</leafValues></_>
    <_>
      <internalNodes>
        0 -1 71 -454054693 -286609686 -16916715 -35189258 -17371137
        -285839618 1962755807 -453647106</internalNodes>
      <leafValues>
        -3.9259293675422668e-01 4.1448622941970825e-01</leafValues></_>
    <_>
      <internalNodes>
        0 -1 1060 320983955 -1861975688 268533786 -451092422 -754399296
        591134754 -217151302 1032278527</internalNodes>
      <leafValues>
        -4.1172075271606445e-01 3.8802379369735718e-01</leafValues></_>
    <_>
      <internalNodes>
        0 -1 660 278198015 -1126936378 1883562207 1959007004 1937922058
        -1835628402 -671024432 -121312268</internalNodes>
      <leafValues>
        -5.8158087730407715e-01 2.7800601720809937e-01</leafValues></_>
    <_>
      <internalNodes>
        0 -1 1145 -671103145 -13140034 -1107313153 1978498919 -8403072
        -1610612737 -168413252 -830931082</internalNodes>
      <leafValues>
        -3.3027854561805725e-01 4.8039346933364868e-01</leafValues></_>
    <_>
      <internalNodes>
        0 -1 1428 1507835920 819134592 152638420 -1622552573 -394065280
        -770998272 -359597940 -87753966</internalNodes>
      <leafValues>
        -4.3103641271591187e-01 3.5120126605033875e-01</leafValues></_>
    <_>
      <internalNodes>
        0 -1 552 -1847852839 -1065025525 335593553 -643694455 973603396
        948961282 -2105374568 -9410466</internalNodes>
      <leafValues>
        -5.0016564130783081e-01 3.1309530138969421e-01</leafValues></_>
    <_>
      <internalNodes>
        0 -1 1216 1879048063 -1615757827 -16777227 -1343291404
        -578977803 -554303492 -16875522 -1141915777</internalNodes>
      <leafValues>
        -3.1129446625709534e-01 5.5164587497711182e-01</leafValues></_>
    <_>
      <internalNodes>
        0 -1 1587 -1819942136 -1018002944 268599296 -1136492140
        -183614591 134250497 -150226264 271874760</internalNodes>
      <leafValues>
        -7.6732569932937622e-01 2.3748312890529633e-01</leafValues></_>
    <_>
      <internalNodes>
        0 -1 1396 991477709 671236440 302010649 -1453563572 545878660
        166331017 1671492000 -1398060660</internalNodes>
      <leafValues>
        -5.5441498756408691e-01 2.6146134734153748e-01</leafValues></_>
    <_>
      <internalNodes>
        0 -1 769 1359287224 964872274 805324936 -1053621245 1493576200
        949059752 1946253962 619149895</internalNodes>
      <leafValues>
        -5.9435963630676270e-01 2.5588196516036987e-01</leafValues></_>
    <_>
      <internalNodes>
        0 -1 652 -348038509 -2070918621 -1023360842 1058914452 277094682
        1526890627 -1164264546 1723039551</internalNodes>
      <leafValues>
        -3.8411182165145874e-01 4.1328036785125732e-01</leafValues></_></weakClassifiers></stage16>
</opencv_storage>
