<?xml version="1.0"?>
<opencv_storage>
<stage18>
  <maxWeakCount>15</maxWeakCount>
  <stageThreshold>-1.2725284099578857e+00</stageThreshold>
  <weakClassifiers>
    <_>
      <internalNodes>
        0 -1 197 -16842753 -17924353 -67452993 -786437 -671089671
        -1359708169 -786849 -9207945</internalNodes>
      <leafValues>
        -2.5569084286689758e-01 6.2323945760726929e-01</leafValues></_>
    <_>
      <internalNodes>
        0 -1 51 -491806549 -95556950 2147173876 -571474255 -554188865
        -1064961 -717363457 -304099361</internalNodes>
      <leafValues>
        -2.8056311607360840e-01 5.3106641769409180e-01</leafValues></_>
    <_>
      <internalNodes>
        0 -1 1542 -671089223 1063714612 -294656352 451935951 -1711415896
        -50495489 -285410100 -253763842</internalNodes>
      <leafValues>
        -2.7508348226547241e-01 5.2655965089797974e-01</leafValues></_>
    <_>
      <internalNodes>
        0 -1 1202 1365070200 -2095775603 16796092 -79527090 1387771612
        735781276 -239374390 2141191163</internalNodes>
      <leafValues>
        -3.7475106120109558e-01 3.5017144680023193e-01</leafValues></_>
    <_>
      <internalNodes>
        0 -1 1093 1475678487 430477642 838979805 -1866560703 -137687008
        -1198661621 -98424012 -50530028</internalNodes>
      <leafValues>
        -6.2251234054565430e-01 2.2642783820629120e-01</leafValues></_>
    <_>
      <internalNodes>
        0 -1 689 2142732271 -277544964 -16847196 -4329668 1610416124
        503119740 -360452 1169151711</internalNodes>
      <leafValues>
        -3.6890697479248047e-01 4.0599980950355530e-01</leafValues></_>
    <_>
      <internalNodes>
        0 -1 915 2126350059 1003547076 -2147012344 -440429680 1544244876
        799539417 721556346 618097255</internalNodes>
      <leafValues>
        -4.1830301284790039e-01 3.2708227634429932e-01</leafValues></_>
    <_>
      <internalNodes>
        0 -1 1296 1938907797 -1485301743 1393627539 265949184 1484864400
        1873313833 -654300684 -285415248</internalNodes>
      <leafValues>
        -5.6533938646316528e-01 2.6092779636383057e-01</leafValues></_>
    <_>
      <internalNodes>
        0 -1 510 282730676 -1049427532 553684377 -580975295 -2113693030
        -1921412104 973769295 1199557470</internalNodes>
      <leafValues>
        -4.0833738446235657e-01 3.7677821516990662e-01</leafValues></_>
    <_>
      <internalNodes>
        0 -1 314 1049608191 536805372 -16982130 805306336 2013068790
        1610022911 -17015330 1685552991</internalNodes>
      <leafValues>
        -3.2748249173164368e-01 4.2428258061408997e-01</leafValues></_>
    <_>
      <internalNodes>
        0 -1 943 1899398790 1905820064 -1560147604 -1826742252
        -1009706496 1478044298 -1474284978 2012771195</internalNodes>
      <leafValues>
        -5.9675914049148560e-01 2.7327272295951843e-01</leafValues></_>
    <_>
      <internalNodes>
        0 -1 1268 1979757525 859988949 310468827 832471451 -486012154
        -2097135570 -203319256 -16995580</internalNodes>
      <leafValues>
        -4.1966480016708374e-01 3.6343753337860107e-01</leafValues></_>
    <_>
      <internalNodes>
        0 -1 1360 298176915 -1660841581 1085472 -825327349 -1196944955
        2072527502 -1306936327 -185663244</internalNodes>
      <leafValues>
        -3.4225234389305115e-01 4.2828753590583801e-01</leafValues></_>
    <_>
      <internalNodes>
        0 -1 1448 -712150763 675676293 1293409168 -1118928435
        -2113222140 2063695872 -501023810 1258005166</internalNodes>
      <leafValues>
        -3.8811230659484863e-01 3.8394144177436829e-01</leafValues></_>
    <_>
      <internalNodes>
        0 -1 425 -1006390715 -53960704 -749174388 1569808400 2030161203
        -1115553630 687945955 -309640797</internalNodes>
      <leafValues>
        -3.6702299118041992e-01 3.9691662788391113e-01</leafValues></_></weakClassifiers></stage18>
</opencv_storage>
