<?xml version="1.0"?>
<opencv_storage>
<stage11>
  <maxWeakCount>12</maxWeakCount>
  <stageThreshold>-1.2777549028396606e+00</stageThreshold>
  <weakClassifiers>
    <_>
      <internalNodes>
        0 -1 210 -391713929 -1146099715 2147472895 -67644421 1107296247
        -1091043329 -8450049 -822247745</internalNodes>
      <leafValues>
        -3.4549733996391296e-01 6.1236804723739624e-01</leafValues></_>
    <_>
      <internalNodes>
        0 -1 1563 -201355520 -775315301 -2109545547 -255088835
        -1421750176 -1303731573 8634907 -1153965149</internalNodes>
      <leafValues>
        -5.0741767883300781e-01 4.1198211908340454e-01</leafValues></_>
    <_>
      <internalNodes>
        0 -1 872 1509479279 1473822816 1369543011 -11400935 1477450228
        2075314347 -605387816 -8758730</internalNodes>
      <leafValues>
        -4.3174335360527039e-01 4.1189354658126831e-01</leafValues></_>
    <_>
      <internalNodes>
        0 -1 1190 -1083845707 863785456 -2053435014 -1210492558
        454230908 1528529296 -1169139222 800062423</internalNodes>
      <leafValues>
        -3.9690983295440674e-01 4.3374893069267273e-01</leafValues></_>
    <_>
      <internalNodes>
        0 -1 1290 -1188543691 -1575349888 -251625250 -1900777252
        -92058330 -41352568 -1161733392 -1090977868</internalNodes>
      <leafValues>
        -6.3032609224319458e-01 2.4670657515525818e-01</leafValues></_>
    <_>
      <internalNodes>
        0 -1 901 -792597540 -17629209 -16777345 1039400949 -17211452
        2147483647 -1477083777 938964855</internalNodes>
      <leafValues>
        -3.5127988457679749e-01 4.7157993912696838e-01</leafValues></_>
    <_>
      <internalNodes>
        0 -1 1589 2122317156 -1074659343 -268435472 -1074795592
        -404865035 826081125 -4104 -1462978597</internalNodes>
      <leafValues>
        -4.1543406248092651e-01 4.3178695440292358e-01</leafValues></_>
    <_>
      <internalNodes>
        0 -1 140 -287912961 1788793282 -1870428986 -19599138 44773579
        1080230024 -350719726 -1764246769</internalNodes>
      <leafValues>
        -4.9672278761863708e-01 3.4507593512535095e-01</leafValues></_>
    <_>
      <internalNodes>
        0 -1 622 1338446321 -1663254373 319071282 1569313638 189564040
        -384303098 -485992438 232750398</internalNodes>
      <leafValues>
        -4.3772649765014648e-01 4.2428129911422729e-01</leafValues></_>
    <_>
      <internalNodes>
        0 -1 1174 1497501439 -1935636270 -671004167 1708437522 294267637
        -1627316016 -150078872 -353074572</internalNodes>
      <leafValues>
        -4.9737024307250977e-01 3.7587139010429382e-01</leafValues></_>
    <_>
      <internalNodes>
        0 -1 1518 220337147 530096192 21027029 -1242937136 -1325170015
        -1466326911 -1182254856 -1930631684</internalNodes>
      <leafValues>
        -6.4947015047073364e-01 2.3556116223335266e-01</leafValues></_>
    <_>
      <internalNodes>
        0 -1 857 1929371647 -274956296 -16781624 2143289072 2136759551
        2111635444 -33652754 368049247</internalNodes>
      <leafValues>
        -3.6620369553565979e-01 5.1105397939682007e-01</leafValues></_></weakClassifiers></stage11>
</opencv_storage>
