<?xml version="1.0"?>
<opencv_storage>
<stage17>
  <maxWeakCount>14</maxWeakCount>
  <stageThreshold>-1.8002212047576904e+00</stageThreshold>
  <weakClassifiers>
    <_>
      <internalNodes>
        0 -1 1578 -2533 -2130061 -285507998 1140307839 -145884412
        -67108866 -598098 -202379409</internalNodes>
      <leafValues>
        -3.6877980828285217e-01 4.9165597558021545e-01</leafValues></_>
    <_>
      <internalNodes>
        0 -1 832 1957876479 -1081290361 -1073688423 -1249636172
        -1033211844 -259358589 -376542600 -464300</internalNodes>
      <leafValues>
        -5.5043762922286987e-01 3.2604190707206726e-01</leafValues></_>
    <_>
      <internalNodes>
        0 -1 100 -1265459233 -545901986 306452644 -839398200 1107296267
        2126121090 -1990229541 1289740255</internalNodes>
      <leafValues>
        -3.8887539505958557e-01 4.1426774859428406e-01</leafValues></_>
    <_>
      <internalNodes>
        0 -1 1289 -33718553 -1089146884 -50397186 -538066948 -41943060
        -1636499460 -461570434 1474781183</internalNodes>
      <leafValues>
        -3.0281099677085876e-01 4.8659798502922058e-01</leafValues></_>
    <_>
      <internalNodes>
        0 -1 127 1809597375 1438401081 131328 -35733282 -1870356276
        -1056694079 -171703678 1970293300</internalNodes>
      <leafValues>
        -7.3693561553955078e-01 1.4409036934375763e-01</leafValues></_>
    <_>
      <internalNodes>
        0 -1 827 280736241 -1476230968 2494762 -1315467002 187404690
        -70024808 -1955050625 815791242</internalNodes>
      <leafValues>
        -3.9670696854591370e-01 3.6097347736358643e-01</leafValues></_>
    <_>
      <internalNodes>
        0 -1 1232 1899219459 595611696 294768784 -1342930496 544415904
        420053149 -1283221196 551508148</internalNodes>
      <leafValues>
        -6.5202903747558594e-01 2.5049299001693726e-01</leafValues></_>
    <_>
      <internalNodes>
        0 -1 676 -745310881 410787909 655760 -840286144 545279652
        2017510019 -1737666402 1048051301</internalNodes>
      <leafValues>
        -4.3063458800315857e-01 3.4375420212745667e-01</leafValues></_>
    <_>
      <internalNodes>
        0 -1 703 -917794145 1097334918 1090650404 -476411536 -2011670372
        691028263 1787202050 2143812642</internalNodes>
      <leafValues>
        -4.4418972730636597e-01 3.2917365431785583e-01</leafValues></_>
    <_>
      <internalNodes>
        0 -1 469 1608497333 -16892129 -1645989939 2141802286 804204485
        1065189341 -168526674 992659338</internalNodes>
      <leafValues>
        -3.2344511151313782e-01 4.5418792963027954e-01</leafValues></_>
    <_>
      <internalNodes>
        0 -1 637 1242884026 101490894 -385609644 -849592858 169881754
        1529352586 -343799242 1962767206</internalNodes>
      <leafValues>
        -5.7542198896408081e-01 2.5652542710304260e-01</leafValues></_>
    <_>
      <internalNodes>
        0 -1 532 1917007551 -2004870581 -1073364769 -1625505702
        -2038280096 588120222 1772120500 -1276884688</internalNodes>
      <leafValues>
        -5.5854606628417969e-01 2.2018516063690186e-01</leafValues></_>
    <_>
      <internalNodes>
        0 -1 6 -872414173 751427682 403386389 1224827218 294314914
        -633073536 830687833 216220824</internalNodes>
      <leafValues>
        -6.0976415872573853e-01 2.1796981990337372e-01</leafValues></_>
    <_>
      <internalNodes>
        0 -1 556 832243077 -864005935 -1593733037 -107794040 -1342152503
        16842754 -1422780416 -76521866</internalNodes>
      <leafValues>
        -5.0571554899215698e-01 2.5656270980834961e-01</leafValues></_></weakClassifiers></stage17>
</opencv_storage>
