<?xml version="1.0"?>
<opencv_storage>
<stage10>
  <maxWeakCount>11</maxWeakCount>
  <stageThreshold>-1.6318510770797729e+00</stageThreshold>
  <weakClassifiers>
    <_>
      <internalNodes>
        0 -1 195 -33587337 -8912897 -32769 -37769354 -302547078 -172169
        -672039087 -13418735</internalNodes>
      <leafValues>
        -4.7633135318756104e-01 5.1942616701126099e-01</leafValues></_>
    <_>
      <internalNodes>
        0 -1 27 -487659285 -4214936 -4867 -37888769 -134750210
        -536907777 1308460799 -102773025</internalNodes>
      <leafValues>
        -3.2527679204940796e-01 6.3248103857040405e-01</leafValues></_>
    <_>
      <internalNodes>
        0 -1 1571 -67384573 -536924193 -1074594505 -34086917 -589460926
        -8519713 -1906966709 -12060853</internalNodes>
      <leafValues>
        -3.4236377477645874e-01 5.3650403022766113e-01</leafValues></_>
    <_>
      <internalNodes>
        0 -1 512 -2071989765 986583120 -805158870 -59838034 -637400616
        571703683 -92116096 -231454316</internalNodes>
      <leafValues>
        -6.1361128091812134e-01 2.9212594032287598e-01</leafValues></_>
    <_>
      <internalNodes>
        0 -1 486 873601416 1913913810 -1825782308 -744624068 806060758
        -1693675402 -838293569 357669818</internalNodes>
      <leafValues>
        -6.7646938562393188e-01 2.2295780479907990e-01</leafValues></_>
    <_>
      <internalNodes>
        0 -1 390 -738723626 -69169082 268484814 -997166906 684327804
        1260421193 -1979536612 -15572170</internalNodes>
      <leafValues>
        -5.0618332624435425e-01 3.3447378873825073e-01</leafValues></_>
    <_>
      <internalNodes>
        0 -1 621 -967060929 -1084342070 286393688 -707002080 1300439721
        1510529281 1602303498 1725385558</internalNodes>
      <leafValues>
        -4.1904574632644653e-01 4.3941545486450195e-01</leafValues></_>
    <_>
      <internalNodes>
        0 -1 1064 1225942331 -1020067748 -1861691330 -745340795
        -1732397276 -1321099127 -1492362510 1917577855</internalNodes>
      <leafValues>
        -4.5943406224250793e-01 3.9551332592964172e-01</leafValues></_>
    <_>
      <internalNodes>
        0 -1 6 -938881869 -1128595716 536755965 -34244609 -336790549
        -337182977 -536908033 1323822574</internalNodes>
      <leafValues>
        -4.0647155046463013e-01 4.5451799035072327e-01</leafValues></_>
    <_>
      <internalNodes>
        0 -1 75 -1974933285 -1098720188 269485698 500761493 -1970837831
        -271044605 1745504985 1419596692</internalNodes>
      <leafValues>
        -5.0854742527008057e-01 3.7331894040107727e-01</leafValues></_>
    <_>
      <internalNodes>
        0 -1 1530 -773862651 -238829456 1611497644 2009792806 -695537080
        312508736 -804064529 2044969784</internalNodes>
      <leafValues>
        -4.5398181676864624e-01 3.9062011241912842e-01</leafValues></_></weakClassifiers></stage10>
</opencv_storage>
