<?xml version="1.0"?>
<opencv_storage>
<stage14>
  <maxWeakCount>14</maxWeakCount>
  <stageThreshold>-1.6789915561676025e+00</stageThreshold>
  <weakClassifiers>
    <_>
      <internalNodes>
        0 -1 1257 -1340085868 -556818295 -1248832580 -1290043245
        575586974 -66092893 9064318 917993471</internalNodes>
      <leafValues>
        -5.1905626058578491e-01 4.1445657610893250e-01</leafValues></_>
    <_>
      <internalNodes>
        0 -1 1588 -1165240525 290000945 -1692941952 -1432775250
        -1171346896 -1279128952 -72619072 -438834178</internalNodes>
      <leafValues>
        -4.8491019010543823e-01 3.7249860167503357e-01</leafValues></_>
    <_>
      <internalNodes>
        0 -1 1597 -1249125511 1386910256 -264167216 -1936142092
        -1156848728 372244536 -370558484 -2066159364</internalNodes>
      <leafValues>
        -5.5955457687377930e-01 3.0688405036926270e-01</leafValues></_>
    <_>
      <internalNodes>
        0 -1 360 -1342210049 -554143745 -17105052 2147483636 2145275870
        -841678988 2130632574 1207951099</internalNodes>
      <leafValues>
        -3.2902181148529053e-01 4.9249982833862305e-01</leafValues></_>
    <_>
      <internalNodes>
        0 -1 1162 -120201217 520638658 1350592986 1342750748 -1582204324
        -108920693 -1172269051 -94082288</internalNodes>
      <leafValues>
        -4.3687885999679565e-01 3.6048519611358643e-01</leafValues></_>
    <_>
      <internalNodes>
        0 -1 126 -2107735810 -424507282 -801095486 -27884730 -1864717694
        -922779575 -129105362 1635252780</internalNodes>
      <leafValues>
        -5.3524827957153320e-01 2.7258729934692383e-01</leafValues></_>
    <_>
      <internalNodes>
        0 -1 1406 -1185610748 -174493376 50364635 -1718828652 512166034
        -393694847 -1597488628 2033338662</internalNodes>
      <leafValues>
        -6.5815633535385132e-01 2.7161493897438049e-01</leafValues></_>
    <_>
      <internalNodes>
        0 -1 1075 867989743 68456480 -1053769703 -37187456 -1040089516
        -618036597 -225904360 -222501856</internalNodes>
      <leafValues>
        -5.3783893585205078e-01 2.8299617767333984e-01</leafValues></_>
    <_>
      <internalNodes>
        0 -1 59 -555422021 -1846612306 -18387275 1575437024 -1124147202
        1879048175 2146858751 2146951159</internalNodes>
      <leafValues>
        -3.7599799036979675e-01 4.1544976830482483e-01</leafValues></_>
    <_>
      <internalNodes>
        0 -1 1155 -1282211812 440176811 152613328 252856524 -792484597
        467534024 914778766 636448626</internalNodes>
      <leafValues>
        -5.5958169698715210e-01 2.7230471372604370e-01</leafValues></_>
    <_>
      <internalNodes>
        0 -1 960 286349407 1073750016 16908320 -48627568 1124631244
        44597250 648028448 892807934</internalNodes>
      <leafValues>
        -4.7169604897499084e-01 3.4338518977165222e-01</leafValues></_>
    <_>
      <internalNodes>
        0 -1 1228 1968277871 -1337163104 269976408 -1370856392
        -1743661652 307233321 -1157403764 903134458</internalNodes>
      <leafValues>
        -5.6121784448623657e-01 2.7210253477096558e-01</leafValues></_>
    <_>
      <internalNodes>
        0 -1 1000 -2001633213 -176008765 -1861396263 -148089526
        -1450014817 -1316404592 -1576434706 -2138814912</internalNodes>
      <leafValues>
        -3.9224100112915039e-01 4.1089138388633728e-01</leafValues></_>
    <_>
      <internalNodes>
        0 -1 1208 -268607707 1058734078 -1245966 -1078198288 1073512412
        763166588 -302088858 2009071607</internalNodes>
      <leafValues>
        -3.6131039261817932e-01 4.5054033398628235e-01</leafValues></_></weakClassifiers></stage14>
</opencv_storage>
