<?xml version="1.0"?>
<opencv_storage>
<stage12>
  <maxWeakCount>12</maxWeakCount>
  <stageThreshold>-1.4053606986999512e+00</stageThreshold>
  <weakClassifiers>
    <_>
      <internalNodes>
        0 -1 1466 2143289343 -1615200268 -268435457 -1108378116 -196612
        -1610612739 -33619972 -4</internalNodes>
      <leafValues>
        -3.7160494923591614e-01 5.8861207962036133e-01</leafValues></_>
    <_>
      <internalNodes>
        0 -1 216 984008934 -184425003 1401124703 1196686551 -397891077
        -47144919 1434495899 -70397466</internalNodes>
      <leafValues>
        -5.0776720046997070e-01 4.1705369949340820e-01</leafValues></_>
    <_>
      <internalNodes>
        0 -1 190 -747023649 -142655334 -1878789155 -4275830 -1064959768
        -206438373 -375362955 -216960220</internalNodes>
      <leafValues>
        -4.6836209297180176e-01 3.6517331004142761e-01</leafValues></_>
    <_>
      <internalNodes>
        0 -1 80 323544822 -1625423714 -1659617064 -842284916 573411530
        1266944043 -1450487250 1605087486</internalNodes>
      <leafValues>
        -4.9332281947135925e-01 3.4534862637519836e-01</leafValues></_>
    <_>
      <internalNodes>
        0 -1 559 1356054621 1609568604 403706006 1989745944 1350611354
        578848784 16978680 1891198130</internalNodes>
      <leafValues>
        -5.4473686218261719e-01 3.0918571352958679e-01</leafValues></_>
    <_>
      <internalNodes>
        0 -1 855 1130301431 459834136 -779075584 -338812516 -2147454436
        151044169 -1308080272 889178815</internalNodes>
      <leafValues>
        -4.7118681669235229e-01 3.5286045074462891e-01</leafValues></_>
    <_>
      <internalNodes>
        0 -1 950 -1075839561 -1091633158 -268501092 -1350696961
        1601990652 534544254 -553844868 2130182006</internalNodes>
      <leafValues>
        -3.8232606649398804e-01 4.6057236194610596e-01</leafValues></_>
    <_>
      <internalNodes>
        0 -1 1302 899150227 -1546485604 65873 -296742448 -1609993204
        -1148649341 -609243280 -1090717136</internalNodes>
      <leafValues>
        -7.1404683589935303e-01 2.1974277496337891e-01</leafValues></_>
    <_>
      <internalNodes>
        0 -1 839 -1124646989 1051656188 2146365170 2142240439 -539206180
        -1965228164 -17375413 2011693055</internalNodes>
      <leafValues>
        -3.4599411487579346e-01 5.2635616064071655e-01</leafValues></_>
    <_>
      <internalNodes>
        0 -1 1399 421675196 38536092 -1828634112 205001181 671457469
        136970784 -1072545604 216332730</internalNodes>
      <leafValues>
        -6.4735722541809082e-01 2.8426733613014221e-01</leafValues></_>
    <_>
      <internalNodes>
        0 -1 197 1879044057 -151093506 -67453262 1945305079 -671138855
        -1502314627 -8946116 -42764417</internalNodes>
      <leafValues>
        -3.5599568486213684e-01 4.6069371700286865e-01</leafValues></_>
    <_>
      <internalNodes>
        0 -1 1059 2105197915 2134425580 -302186532 -1382285314
        2147246012 2130575356 1828651006 2012708787</internalNodes>
      <leafValues>
        -3.8863149285316467e-01 4.4874593615531921e-01</leafValues></_></weakClassifiers></stage12>
</opencv_storage>
