<?xml version="1.0"?>
<opencv_storage>
<stage7>
  <maxWeakCount>11</maxWeakCount>
  <stageThreshold>-1.9509191513061523e+00</stageThreshold>
  <weakClassifiers>
    <_>
      <internalNodes>
        0 -1 565 -1968525389 334494968 -2105473 2111821311 803540991
        -1376256002 -1748180993 -20993</internalNodes>
      <leafValues>
        -4.6578073501586914e-01 6.0921055078506470e-01</leafValues></_>
    <_>
      <internalNodes>
        0 -1 1585 -2097885 -12583249 787312288 -1214070801 -590076
        -17301513 -726876 -186651138</internalNodes>
      <leafValues>
        -4.7236219048500061e-01 4.8081105947494507e-01</leafValues></_>
    <_>
      <internalNodes>
        0 -1 962 -1073741865 -4194308 -1074938884 -1078985030 -27435044
        1062567932 -1113130118 901742591</internalNodes>
      <leafValues>
        -4.0463659167289734e-01 4.8324501514434814e-01</leafValues></_>
    <_>
      <internalNodes>
        0 -1 1598 -1688643597 -1571106538 -652824176 685246917
        -339525143 -1468006007 -74077268 -1996711763</internalNodes>
      <leafValues>
        -5.9338033199310303e-01 3.4834674000740051e-01</leafValues></_>
    <_>
      <internalNodes>
        0 -1 1131 1588974080 -82172713 195139215 -576350113 -1062587732
        -73234264 286199342 -1490584530</internalNodes>
      <leafValues>
        -5.4718679189682007e-01 3.5453447699546814e-01</leafValues></_>
    <_>
      <internalNodes>
        0 -1 358 -1042671137 413024852 346570846 -259948 -939390832
        1510130571 -1873622738 1735351578</internalNodes>
      <leafValues>
        -5.3380864858627319e-01 3.4635478258132935e-01</leafValues></_>
    <_>
      <internalNodes>
        0 -1 707 1360025341 1372590538 -1861193700 1599931084 -784170514
        278924160 -620229906 2029828090</internalNodes>
      <leafValues>
        -5.0366586446762085e-01 4.1444203257560730e-01</leafValues></_>
    <_>
      <internalNodes>
        0 -1 280 42175997 -1638383314 -746557436 1440292028 365133978
        -1962360311 -2121455634 1570227006</internalNodes>
      <leafValues>
        -4.6337997913360596e-01 4.2694589495658875e-01</leafValues></_>
    <_>
      <internalNodes>
        0 -1 1213 888475867 600866820 -383051301 -1362312816 -240439024
        -86310749 -1154934432 -287509644</internalNodes>
      <leafValues>
        -7.2234952449798584e-01 2.7232733368873596e-01</leafValues></_>
    <_>
      <internalNodes>
        0 -1 191 1109606903 -65976169 1350570230 -44427364 1073744016
        270567425 -639630409 -1235761065</internalNodes>
      <leafValues>
        -4.9619349837303162e-01 3.8520026206970215e-01</leafValues></_>
    <_>
      <internalNodes>
        0 -1 1281 -984224843 287417093 1075839312 -1362705988 304575368
        -89947739 -1251845540 284891582</internalNodes>
      <leafValues>
        -4.7914004325866699e-01 4.1209408640861511e-01</leafValues></_></weakClassifiers></stage7>
</opencv_storage>
